digraph Tree {
node [shape=box, fontname="helvetica"] ;
edge [fontname="helvetica"] ;
0 [label="year <= 2018.5\nsquared_error = 122.321\nsamples = 16496\nvalue = 7.503"] ;
1 [label="hourOfDay <= 6.5\nsquared_error = 190.244\nsamples = 4238\nvalue = 16.358"] ;
0 -> 1 [labeldistance=2.5, labelangle=45, headlabel="True"] ;
2 [label="month <= 10.5\nsquared_error = 12.409\nsamples = 1201\nvalue = 6.561"] ;
1 -> 2 ;
3 [label="hourOfDay <= 5.5\nsquared_error = 10.001\nsamples = 899\nvalue = 7.73"] ;
2 -> 3 ;
4 [label="squared_error = 4.526\nsamples = 768\nvalue = 6.951"] ;
3 -> 4 ;
5 [label="squared_error = 17.675\nsamples = 131\nvalue = 12.298"] ;
3 -> 5 ;
6 [label="dayOfMonth <= 21.5\nsquared_error = 3.414\nsamples = 302\nvalue = 3.083"] ;
2 -> 6 ;
7 [label="squared_error = 3.65\nsamples = 208\nvalue = 3.562"] ;
6 -> 7 ;
8 [label="squared_error = 1.255\nsamples = 94\nvalue = 2.021"] ;
6 -> 8 ;
9 [label="hourOfDay <= 16.5\nsquared_error = 207.603\nsamples = 3037\nvalue = 20.232"] ;
1 -> 9 ;
10 [label="isWeekday <= 0.5\nsquared_error = 204.608\nsamples = 1785\nvalue = 27.38"] ;
9 -> 10 ;
11 [label="squared_error = 24.463\nsamples = 520\nvalue = 11.077"] ;
10 -> 11 ;
12 [label="squared_error = 124.482\nsamples = 1265\nvalue = 34.082"] ;
10 -> 12 ;
13 [label="hourOfDay <= 18.5\nsquared_error = 35.174\nsamples = 1252\nvalue = 10.042"] ;
9 -> 13 ;
14 [label="squared_error = 48.742\nsamples = 354\nvalue = 15.209"] ;
13 -> 14 ;
15 [label="squared_error = 15.149\nsamples = 898\nvalue = 8.004"] ;
13 -> 15 ;
16 [label="year <= 2019.5\nsquared_error = 62.357\nsamples = 12258\nvalue = 4.442"] ;
0 -> 16 [labeldistance=2.5, labelangle=-45, headlabel="False"] ;
17 [label="hourOfDay <= 7.5\nsquared_error = 83.712\nsamples = 6081\nvalue = 7.547"] ;
16 -> 17 ;
18 [label="hourOfDay <= 6.5\nsquared_error = 6.192\nsamples = 2036\nvalue = 2.023"] ;
17 -> 18 ;
19 [label="squared_error = 1.987\nsamples = 1794\nvalue = 1.525"] ;
18 -> 19 ;
20 [label="squared_error = 21.89\nsamples = 242\nvalue = 5.715"] ;
18 -> 20 ;
21 [label="hourOfDay <= 16.5\nsquared_error = 99.64\nsamples = 4045\nvalue = 10.327"] ;
17 -> 21 ;
22 [label="squared_error = 105.581\nsamples = 2255\nvalue = 15.518"] ;
21 -> 22 ;
23 [label="squared_error = 15.448\nsamples = 1790\nvalue = 3.788"] ;
21 -> 23 ;
24 [label="month <= 3.5\nsquared_error = 22.504\nsamples = 6177\nvalue = 1.385"] ;
16 -> 24 ;
25 [label="temperature <= 16.5\nsquared_error = 72.4\nsamples = 1524\nvalue = 5.068"] ;
24 -> 25 ;
26 [label="squared_error = 37.811\nsamples = 1144\nvalue = 2.899"] ;
25 -> 26 ;
27 [label="squared_error = 119.73\nsamples = 380\nvalue = 11.597"] ;
25 -> 27 ;
28 [label="month <= 11.5\nsquared_error = 0.266\nsamples = 4653\nvalue = 0.179"] ;
24 -> 28 ;
29 [label="squared_error = 0.18\nsamples = 4136\nvalue = 0.128"] ;
28 -> 29 ;
30 [label="squared_error = 0.76\nsamples = 517\nvalue = 0.594"] ;
28 -> 30 ;
}