digraph Tree {
node [shape=box, fontname="helvetica"] ;
edge [fontname="helvetica"] ;
0 [label="isWeekday <= 0.5\nsquared_error = 315.185\nsamples = 13706\nvalue = 9.943"] ;
1 [label="hourOfDay <= 6.5\nsquared_error = 1.522\nsamples = 3899\nvalue = 0.592"] ;
0 -> 1 [labeldistance=2.5, labelangle=45, headlabel="True"] ;
2 [label="hourOfDay <= 4.5\nsquared_error = 0.196\nsamples = 1118\nvalue = 0.151"] ;
1 -> 2 ;
3 [label="dayOfMonth <= 1.5\nsquared_error = 0.091\nsamples = 806\nvalue = 0.083"] ;
2 -> 3 ;
4 [label="squared_error = 0.283\nsamples = 29\nvalue = 0.31"] ;
3 -> 4 ;
5 [label="squared_error = 0.082\nsamples = 777\nvalue = 0.075"] ;
3 -> 5 ;
6 [label="year <= 2019.5\nsquared_error = 0.425\nsamples = 312\nvalue = 0.327"] ;
2 -> 6 ;
7 [label="squared_error = 0.574\nsamples = 173\nvalue = 0.503"] ;
6 -> 7 ;
8 [label="squared_error = 0.154\nsamples = 139\nvalue = 0.108"] ;
6 -> 8 ;
9 [label="hourOfDay <= 16.5\nsquared_error = 1.945\nsamples = 2781\nvalue = 0.77"] ;
1 -> 9 ;
10 [label="year <= 2019.5\nsquared_error = 2.774\nsamples = 1653\nvalue = 1.099"] ;
9 -> 10 ;
11 [label="squared_error = 3.787\nsamples = 904\nvalue = 1.585"] ;
10 -> 11 ;
12 [label="squared_error = 0.92\nsamples = 749\nvalue = 0.511"] ;
10 -> 12 ;
13 [label="hourOfDay <= 18.5\nsquared_error = 0.339\nsamples = 1128\nvalue = 0.287"] ;
9 -> 13 ;
14 [label="squared_error = 0.545\nsamples = 319\nvalue = 0.489"] ;
13 -> 14 ;
15 [label="squared_error = 0.236\nsamples = 809\nvalue = 0.208"] ;
13 -> 15 ;
16 [label="hourOfDay <= 16.5\nsquared_error = 391.307\nsamples = 9807\nvalue = 13.66"] ;
0 -> 16 [labeldistance=2.5, labelangle=-45, headlabel="False"] ;
17 [label="hourOfDay <= 5.5\nsquared_error = 471.438\nsamples = 6932\nvalue = 18.38"] ;
16 -> 17 ;
18 [label="hourOfDay <= 4.5\nsquared_error = 35.166\nsamples = 2466\nvalue = 2.318"] ;
17 -> 18 ;
19 [label="squared_error = 2.551\nsamples = 2041\nvalue = 0.665"] ;
18 -> 19 ;
20 [label="squared_error = 115.659\nsamples = 425\nvalue = 10.256"] ;
18 -> 20 ;
21 [label="year <= 2019.5\nsquared_error = 491.232\nsamples = 4466\nvalue = 27.249"] ;
17 -> 21 ;
22 [label="squared_error = 286.85\nsamples = 2443\nvalue = 40.165"] ;
21 -> 22 ;
23 [label="squared_error = 293.292\nsamples = 2023\nvalue = 11.651"] ;
21 -> 23 ;
24 [label="hourOfDay <= 17.5\nsquared_error = 14.904\nsamples = 2875\nvalue = 2.281"] ;
16 -> 24 ;
25 [label="month <= 2.5\nsquared_error = 48.55\nsamples = 427\nvalue = 7.499"] ;
24 -> 25 ;
26 [label="squared_error = 37.769\nsamples = 61\nvalue = 16.033"] ;
25 -> 26 ;
27 [label="squared_error = 36.185\nsamples = 366\nvalue = 6.077"] ;
25 -> 27 ;
28 [label="hourOfDay <= 18.5\nsquared_error = 3.458\nsamples = 2448\nvalue = 1.371"] ;
24 -> 28 ;
29 [label="squared_error = 9.224\nsamples = 414\nvalue = 3.186"] ;
28 -> 29 ;
30 [label="squared_error = 1.477\nsamples = 2034\nvalue = 1.001"] ;
28 -> 30 ;
}